{
  "num_layers": 4,
  "layer0": {
    "name": "Conv2d",
    "in_channels": 14,
    "out_channels": 32,
    "weight": [
      -0.7422893643379211,
      0.37024280428886414,
      0.11152948439121246,
      0.06609167158603668,
      -0.04040178284049034,
      -0.7119661569595337,
      0.24987158179283142,
      -0.17322874069213867,
      0.14794622361660004,
      -0.297631174325943,
      0.5731034874916077,
      -0.29075661301612854,
      -0.008810932748019695,
      -0.00876863207668066,
      0.7430579662322998,
      1.1202954053878784,
      -0.5834388136863708,
      0.13544344902038574,
      -1.338974952697754,
      -0.44779136776924133,
      0.2825707495212555,
      -0.6874271035194397,
      -1.5827442407608032,
      -1.5085937976837158,
      -0.49224746227264404,
      -0.28221189975738525,
      -0.03071073815226555,
      0.043526265770196915,
      0.020511429756879807,
      -0.003872344736009836,
      -0.015349050983786583,
      -0.003123196540400386,
      -0.01827031560242176,
      -0.11132720857858658,
      -0.01629074104130268,
      -0.3059440553188324,
      0.11370741575956345,
      -0.07317312806844711,
      -0.23150314390659332,
      -0.2781364619731903,
      -0.1399044394493103,
      0.11455120891332626,
      0.04605359956622124,
      -0.18109002709388733,
      -0.3568649888038635,
      -0.22085139155387878,
      -0.1349417120218277,
      -0.2471696138381958,
      -0.25588980317115784,
      0.09345073997974396,
      -0.1780775636434555,
      0.15716485679149628,
      0.12117623537778854,
      -0.3135116696357727,
      -0.057595863938331604,
      0.1459759622812271,
      -0.6334578394889832,
      0.8045137524604797,
      -0.32760509848594666,
      -0.2296842336654663,
      0.09722156822681427,
      0.5089810490608215,
      -0.46712109446525574,
      -0.474222868680954,
      -0.18441547453403473,
      -0.032394181936979294,
      0.3316819369792938,
      0.012491432949900627,
      0.006047084461897612,
      0.017461923882365227,
      -0.11250129342079163,
      -0.9301032423973083,
      0.06757868081331253,
      0.022810015827417374,
      -0.3907485604286194,
      0.26501432061195374,
      0.07917429506778717,
      0.0945315808057785,
      -0.05768392235040665,
      0.23809696733951569,
      -0.2783724367618561,
      0.08839447796344757,
      0.03436783328652382,
      -0.033158935606479645,
      -0.06514136493206024,
      0.2170943021774292,
      0.02959297224879265,
      -0.3091546893119812,
      -0.16030500829219818,
      -0.20267516374588013,
      -0.009450072422623634,
      -0.3046922981739044,
      -0.30370867252349854,
      0.08928152918815613,
      -0.1662885695695877,
      -0.010941121727228165,
      0.08086232841014862,
      0.13812178373336792,
      0.07772672176361084,
      0.010804646648466587,
      -0.36541715264320374,
      0.08660443127155304,
      0.022662552073597908,
      -0.23903480172157288,
      -0.008147462271153927,
      -0.26413506269454956,
      -0.20397979021072388,
      -0.04493435472249985,
      -0.09199409931898117,
      -0.31378865242004395,
      0.16711732745170593,
      -0.07452110201120377,
      -0.09083803743124008,
      0.14711062610149384,
      -0.2200869619846344,
      -0.12486623972654343,
      -0.3009725511074066,
      -0.12855687737464905,
      0.10919998586177826,
      -0.2811252176761627,
      0.014993788674473763,
      -0.038044098764657974,
      0.03213169053196907,
      -0.11799199134111404,
      -0.03531596437096596,
      -0.1346130669116974,
      -0.07813694328069687,
      0.06974007934331894,
      -0.2201211303472519,
      0.11865490674972534,
      0.13765016198158264,
      -0.12182332575321198,
      -0.20900234580039978,
      -0.22276344895362854,
      -0.06820342689752579,
      -0.17579352855682373,
      -0.14954370260238647,
      -0.04774632677435875,
      0.0008389424183405936,
      -0.002946991240605712,
      0.8802050352096558,
      -0.3024788200855255,
      0.36501479148864746,
      0.04654080793261528,
      0.3713757395744324,
      -0.49052694439888,
      -0.16123074293136597,
      -0.37501075863838196,
      0.08450646698474884,
      0.2602362036705017,
      0.26901930570602417,
      -0.5187699198722839,
      -0.00962604209780693,
      0.008690021932125092,
      0.6741244792938232,
      0.6441701650619507,
      0.3755607306957245,
      -0.20889341831207275,
      -0.9023178219795227,
      -0.8461801409721375,
      0.107277050614357,
      -0.3866341710090637,
      -0.33534860610961914,
      -0.5314797163009644,
      -0.1724991500377655,
      -0.06586156785488129,
      0.0038615737576037645,
      0.016175424680113792,
      -0.2227099984884262,
      -0.3309640884399414,
      -0.30857470631599426,
      0.058461062610149384,
      -0.021294068545103073,
      -0.08779831230640411,
      -0.040633827447891235,
      -0.08466532826423645,
      -0.11367974430322647,
      -0.1456986367702484,
      0.03487993776798248,
      -0.08636943250894547,
      0.27492499351501465,
      0.002433265093713999,
      -0.04375378042459488,
      0.04202980920672417,
      -0.3876992464065552,
      -1.451076626777649,
      0.38056883215904236,
      -0.8790784478187561,
      0.01086038164794445,
      -0.3856465220451355,
      0.6617429256439209,
      0.24340374767780304,
      0.12447725981473923,
      -0.035313528031110764,
      0.0024334057234227657,
      -0.005952599458396435,
      -0.07746712863445282,
      0.042802903801202774,
      -1.8369462490081787,
      -0.31754976511001587,
      0.18480455875396729,
      -0.05888250842690468,
      0.4010165333747864,
      -0.4336566627025604,
      -0.1800507754087448,
      0.16282251477241516,
      0.015576410107314587,
      0.27678313851356506,
      0.0511242114007473,
      0.0030156963039189577,
      -0.3473816215991974,
      0.4186301827430725,
      -0.3417585492134094,
      -0.1914624124765396,
      -0.6030747890472412,
      0.4343353807926178,
      0.04314759373664856,
      0.40924057364463806,
      0.39400607347488403,
      0.26957032084465027,
      -0.3730925917625427,
      0.760898768901825,
      0.07401032745838165,
      -0.010228852741420269,
      0.007685551885515451,
      -0.10840418189764023,
      0.08337053656578064,
      -0.13829024136066437,
      -0.17880606651306152,
      -0.11517402529716492,
      0.08285319805145264,
      -0.08280932158231735,
      -0.2186318337917328,
      -0.09229949861764908,
      -0.33273619413375854,
      0.04426422342658043,
      -0.014271656982600689,
      -0.05029984563589096,
      0.6546618938446045,
      0.8487870693206787,
      0.8204793334007263,
      0.03681641444563866,
      -0.3823741376399994,
      -0.2710263133049011,
      -0.6080912351608276,
      -0.031156964600086212,
      0.09805215150117874,
      0.07280142605304718,
      -0.028295814990997314,
      -0.10540392249822617,
      -0.029751522466540337,
      0.01743806153535843,
      0.09721262753009796,
      0.10944566875696182,
      -0.47297006845474243,
      0.4721413254737854,
      0.9712580442428589,
      -0.08648188412189484,
      0.6975878477096558,
      1.162644863128662,
      0.5102359652519226,
      0.2650497853755951,
      0.2982883155345917,
      -0.2794696092605591,
      -0.029859336093068123,
      0.005081682000309229,
      -0.22941811382770538,
      0.23377056419849396,
      1.3270490169525146,
      -0.37242206931114197,
      -0.13345380127429962,
      -0.04292261600494385,
      -0.14226171374320984,
      0.3327549993991852,
      0.11893411725759506,
      0.11702080816030502,
      -0.19988110661506653,
      0.08028549700975418,
      -0.050322409719228745,
      0.020773515105247498,
      -0.27755898237228394,
      -0.40351492166519165,
      0.07585702836513519,
      0.7507279515266418,
      -1.4990671873092651,
      -0.09473837912082672,
      -0.45816758275032043,
      -0.35648417472839355,
      -1.2937095165252686,
      -0.7866647243499756,
      0.09274635463953018,
      0.0031541583593934774,
      0.04396427795290947,
      0.007139968685805798,
      0.15948840975761414,
      -0.14169910550117493,
      -0.2396335005760193,
      0.15196771919727325,
      -0.31573933362960815,
      0.12039276212453842,
      0.01778896525502205,
      -0.21185052394866943,
      0.05845437943935394,
      -0.312386155128479,
      -0.04338541254401207,
      -0.009551181457936764,
      0.08814045041799545,
      0.05528612062335014,
      -0.13070860505104065,
      0.021428002044558525,
      -0.014021982438862324,
      0.023466777056455612,
      -0.24832358956336975,
      -0.27585530281066895,
      -0.01902827061712742,
      -0.03576749190688133,
      -0.28420791029930115,
      -0.3396132290363312,
      0.1893511414527893,
      0.042865604162216187,
      0.232286274433136,
      -0.0015376025112345815,
      0.4079839289188385,
      0.5913006067276001,
      -1.146761417388916,
      0.09333381056785583,
      -0.6435966491699219,
      -0.2560204267501831,
      0.6952002048492432,
      -0.3002268075942993,
      0.42953428626060486,
      -0.5071054100990295,
      -0.12708887457847595,
      0.19212284684181213,
      0.06094725802540779,
      -0.03009060025215149,
      -0.28123849630355835,
      0.03222435712814331,
      -0.016710875555872917,
      -0.18158262968063354,
      0.021189918741583824,
      -0.16270466148853302,
      -0.015583244152367115,
      -0.28211063146591187,
      -0.17021727561950684,
      -0.1956651210784912,
      -0.09528245776891708,
      -0.2189122438430786,
      -0.11061294376850128,
      -0.10718153417110443,
      0.6074028015136719,
      0.7598550915718079,
      -0.012510174885392189,
      0.5507322549819946,
      -0.7395740747451782,
      0.014049186371266842,
      -0.48822981119155884,
      0.5133129954338074,
      -0.44036367535591125,
      0.2638201117515564,
      -0.12113726884126663,
      -0.25410544872283936,
      0.0010674144141376019,
      0.008568508550524712,
      -0.19981877505779266,
      0.04846523702144623,
      0.05177590996026993,
      -0.16667118668556213,
      -0.20556311309337616,
      -0.11575900763273239,
      -0.020490212365984917,
      -0.05241800472140312,
      -0.11575611680746078,
      -0.11240214109420776,
      -0.007576314266771078,
      -0.21022655069828033,
      -0.08991262316703796,
      -0.1279541701078415,
      -0.07616808265447617,
      -0.16311098635196686,
      -0.23204436898231506,
      -0.22610190510749817,
      -0.04931402578949928,
      -0.13580447435379028,
      -0.24136410653591156,
      -0.0666731521487236,
      -0.18525093793869019,
      0.11233172565698624,
      0.18612731993198395,
      -0.2512231469154358,
      -0.025917544960975647,
      0.17995746433734894,
      -0.19814376533031464,
      0.1572374701499939,
      -0.7749480605125427,
      0.6137213706970215,
      0.2999427616596222,
      -0.5033614039421082,
      0.1218089759349823,
      -0.32912057638168335,
      -0.350271075963974,
      0.17200878262519836,
      0.8853745460510254,
      -0.9666467905044556,
      0.0649295225739479,
      0.010650849901139736,
      0.5571507215499878,
      0.005489232484251261,
      -0.5031929612159729,
      -0.8497662544250488,
      0.3244328498840332,
      0.22342975437641144,
      -0.049976736307144165,
      -0.23701240122318268,
      -0.11855067312717438,
      0.26188966631889343,
      -0.624829113483429,
      0.5972956418991089,
      -0.006550982594490051,
      -0.0054026213474571705,
      -1.077662706375122,
      0.8277454376220703,
      0.3261446952819824,
      0.26109081506729126,
      0.3040516972541809,
      0.1587074249982834,
      0.21200430393218994,
      0.045936375856399536,
      -0.11048956960439682,
      -0.566188395023346,
      0.06742405146360397,
      0.017403414472937584,
      -0.003191694151610136,
      -0.014987113885581493,
      0.737327516078949,
      0.32480934262275696,
      -0.3180306553840637,
      -0.16504545509815216,
      -0.7947875261306763,
      0.19197161495685577,
      -0.24646753072738647,
      -0.6908877491950989,
      0.07504210621118546,
      0.04115881025791168,
      0.059700869023799896,
      0.46661385893821716,
      0.0800408273935318,
      -0.018115641549229622
    ],
    "bias": [
      0.5696499943733215,
      -0.546845018863678,
      -0.353980153799057,
      -0.0098957484588027,
      0.32329708337783813,
      0.8603546023368835,
      -0.2494221180677414,
      -0.2878764271736145,
      -0.19055715203285217,
      -0.15999725461006165,
      -0.1006258949637413,
      -0.1771039068698883,
      -0.1526893526315689,
      0.7676443457603455,
      0.606348991394043,
      0.42483264207839966,
      -0.12792254984378815,
      -0.4816623032093048,
      -0.06757328659296036,
      -0.036499932408332825,
      0.5999467372894287,
      -0.23725533485412598,
      -0.15367485582828522,
      0.0333532877266407,
      -0.1396220624446869,
      -0.5694374442100525,
      -0.2214173972606659,
      -0.06179936230182648,
      0.5832961201667786,
      0.37221577763557434,
      -0.3913801908493042,
      0.16205155849456787
    ]
  },
  "layer1": {
    "name": "ReLU"
  },
  "layer2": {
    "name": "Conv2d",
    "in_channels": 32,
    "out_channels": 8,
    "weight": [
      -0.1964542418718338,
      -0.3274214267730713,
      0.0034503554925322533,
      -0.005722748581320047,
      -0.18995413184165955,
      -0.15634408593177795,
      -0.1293245106935501,
      0.07577966898679733,
      0.015476744621992111,
      0.16820837557315826,
      0.18871569633483887,
      0.21682843565940857,
      0.003994399216026068,
      -0.9940325617790222,
      -0.7760825157165527,
      -0.09498315304517746,
      -0.0547841340303421,
      0.8207550048828125,
      -0.06410454958677292,
      0.2913084924221039,
      0.022221563383936882,
      0.04950888827443123,
      -0.08514668047428131,
      0.08573132008314133,
      -0.030025949701666832,
      0.7611035704612732,
      -0.09229721873998642,
      0.09280497580766678,
      -0.3251698315143585,
      -0.3670720160007477,
      0.1661466658115387,
      0.10915740579366684,
      -0.15250256657600403,
      -0.1624983549118042,
      0.03204404562711716,
      0.07301568984985352,
      -0.18855707347393036,
      -0.608112633228302,
      0.18639278411865234,
      -0.024682430550456047,
      0.004814093932509422,
      0.04218088462948799,
      0.2349931299686432,
      0.4758518636226654,
      0.05644358694553375,
      0.554774820804596,
      -0.22836534678936005,
      -0.11837444454431534,
      0.08267895877361298,
      0.8404630422592163,
      0.18811047077178955,
      0.44477349519729614,
      0.3415296971797943,
      -0.0747220367193222,
      -0.04735689237713814,
      -0.12625545263290405,
      -0.017632631585001945,
      -0.08772902935743332,
      -0.034616563469171524,
      -0.16648371517658234,
      -0.3542047142982483,
      0.06511521339416504,
      -0.06976579129695892,
      -0.027272677049040794,
      0.15622976422309875,
      -0.2977111041545868,
      0.02949727512896061,
      -0.09609096497297287,
      -0.14030662178993225,
      -0.37759557366371155,
      0.006735631264746189,
      -0.04499993100762367,
      -0.05116495117545128,
      -0.1295965164899826,
      0.2882053554058075,
      0.44876837730407715,
      0.05971057713031769,
      0.15444698929786682,
      -0.14928534626960754,
      -0.14684803783893585,
      0.027379482984542847,
      0.6503736972808838,
      -0.22902868688106537,
      0.41038626432418823,
      -0.10804229229688644,
      -0.014615838415920734,
      0.022368019446730614,
      0.054670047014951706,
      0.07254306972026825,
      0.06401417404413223,
      0.12873336672782898,
      -0.040231551975011826,
      -0.19785696268081665,
      0.1081809401512146,
      -0.2784823477268219,
      0.08227374404668808,
      0.6891512274742126,
      5.625655651092529,
      0.031171660870313644,
      0.2204260677099228,
      0.2591859996318817,
      0.6520287990570068,
      0.18262521922588348,
      0.24497009813785553,
      -0.059417422860860825,
      0.14851780235767365,
      -0.4158910810947418,
      1.5824120044708252,
      -0.06676489859819412,
      0.07975057512521744,
      1.1630274057388306,
      1.0608932971954346,
      0.004642780404537916,
      -0.3806198835372925,
      0.42970386147499084,
      -0.24337826669216156,
      1.3530117273330688,
      -0.050928838551044464,
      -0.0009784346912056208,
      2.616170883178711,
      0.1260164976119995,
      2.4827420711517334,
      -0.09408619999885559,
      0.09872208535671234,
      0.8782990574836731,
      0.0876370370388031,
      -2.5159339904785156,
      0.738735020160675,
      -0.6207048296928406,
      -0.11549269407987595,
      0.08560984581708908,
      -0.069383405148983,
      -0.5483768582344055,
      0.5395985841751099,
      -0.044932056218385696,
      0.07702179998159409,
      -0.14608003199100494,
      -0.05543432757258415,
      0.5747323036193848,
      -0.02927810326218605,
      -0.07773428410291672,
      -0.07429391145706177,
      0.14274299144744873,
      -0.1601516455411911,
      -0.06026800721883774,
      -0.09651634097099304,
      0.013751218095421791,
      -0.31547388434410095,
      0.09069531410932541,
      0.025589853525161743,
      -0.11430174112319946,
      -0.030061783269047737,
      -0.019315682351589203,
      0.006413239985704422,
      0.09297726303339005,
      -0.15076200664043427,
      -0.20757949352264404,
      0.39899784326553345,
      -1.3691736459732056,
      0.42462268471717834,
      -0.07802555710077286,
      -0.08439461141824722,
      0.037221264094114304,
      -0.0005057032103650272,
      0.3167973458766937,
      -0.010651655495166779,
      0.060005318373441696,
      0.09473767131567001,
      -0.06739409267902374,
      0.16003717482089996,
      -0.4192813038825989,
      -0.2767438292503357,
      0.018285011872649193,
      0.023781539872288704,
      -0.008921120315790176,
      0.3252967596054077,
      0.016247190535068512,
      0.1517512947320938,
      -0.3200172185897827,
      0.376907080411911,
      0.1070517748594284,
      -0.10591941326856613,
      0.033311232924461365,
      0.215389683842659,
      -0.10948696732521057,
      -0.11873845756053925,
      0.11702010035514832,
      0.02173173427581787,
      -0.5352588295936584,
      0.07806774228811264,
      -0.14504921436309814,
      0.1622372269630432,
      0.0880252867937088,
      3.1802163124084473,
      -0.004231659695506096,
      0.05228034034371376,
      0.5944522619247437,
      -0.588784396648407,
      0.005567308980971575,
      -0.04047654569149017,
      0.11848021298646927,
      -0.1497947722673416,
      -0.09832152724266052,
      0.7357075214385986,
      -0.03180689364671707,
      0.16547392308712006,
      0.7283670902252197,
      0.5833700299263,
      0.043991100043058395,
      0.6908138394355774,
      0.10371425747871399,
      -1.0475972890853882,
      0.6752676963806152,
      -0.09843486547470093,
      -0.1615256369113922,
      1.125718355178833,
      -0.09242258220911026,
      0.4810957908630371,
      -0.024093838408589363,
      -0.02779141440987587,
      0.8500624895095825,
      0.3998059332370758,
      -0.07228507846593857,
      1.2785556316375732,
      0.4213390350341797,
      -0.1323489248752594,
      0.0026315711438655853,
      0.1127723678946495,
      -0.3636592924594879,
      0.7099115252494812,
      -0.14586739242076874,
      0.13557304441928864,
      0.034387074410915375,
      0.10795650631189346,
      -0.17833514511585236,
      0.46422305703163147,
      -0.03972865268588066,
      0.25267139077186584,
      -0.2976105809211731,
      -0.10386435687541962,
      0.17047721147537231,
      -0.448455274105072,
      -0.5530317425727844,
      0.22651983797550201,
      0.3738471269607544,
      0.16558147966861725,
      0.1183742880821228,
      0.014778174459934235,
      -0.21655791997909546,
      -0.13096998631954193,
      -0.21818311512470245,
      0.1188201829791069,
      -0.05497743934392929,
      -0.4607793390750885,
      -0.6260627508163452,
      -0.2695358991622925
    ],
    "bias": [
      -0.5285177230834961,
      -0.05578567832708359,
      -0.014279798604547977,
      0.8979890942573547,
      0.13043075799942017,
      -0.020876668393611908,
      0.3198968768119812,
      0.44824814796447754
    ]
  },
  "layer3": {
    "name": "Sigmoid"
  }
}